Language model created by QuickLM on Mon Feb 27 13:26:12 EST 2023
Copyright (c) 1996-2010 Carnegie Mellon University and Alexander I. Rudnicky

The model is in standard ARPA format, designed by Doug Paul while he was at MITRE.

The code that was used to produce this language model is available in Open Source.
Please visit http://www.speech.cs.cmu.edu/tools/ for more information

The (fixed) discount mass is 0.5. The backoffs are computed using the ratio method.
This model based on a corpus of 12 sentences and 14 words

\data\
ngram 1=14
ngram 2=24
ngram 3=12

\1-grams:
-0.7782 </s> -0.3010
-0.7782 <s> -0.2218
-1.8573 ALL -0.2218
-1.8573 AMAZON -0.2218
-1.8573 CHROME -0.2218
-1.8573 CLOSE -0.2218
-1.8573 GOOGLE -0.2218
-1.8573 MAP -0.2218
-1.8573 OPEN -0.2218
-1.8573 RESTART -0.2218
-1.8573 SHUTDOWN -0.2218
-1.8573 SYSTEM -0.2218
-1.8573 YOUTUBE -0.2218
-1.8573 ZOMATO -0.2218

\2-grams:
-1.3802 <s> ALL 0.0000
-1.3802 <s> AMAZON 0.0000
-1.3802 <s> CHROME 0.0000
-1.3802 <s> CLOSE 0.0000
-1.3802 <s> GOOGLE 0.0000
-1.3802 <s> MAP 0.0000
-1.3802 <s> OPEN 0.0000
-1.3802 <s> RESTART 0.0000
-1.3802 <s> SHUTDOWN 0.0000
-1.3802 <s> SYSTEM 0.0000
-1.3802 <s> YOUTUBE 0.0000
-1.3802 <s> ZOMATO 0.0000
-0.3010 ALL </s> -0.3010
-0.3010 AMAZON </s> -0.3010
-0.3010 CHROME </s> -0.3010
-0.3010 CLOSE </s> -0.3010
-0.3010 GOOGLE </s> -0.3010
-0.3010 MAP </s> -0.3010
-0.3010 OPEN </s> -0.3010
-0.3010 RESTART </s> -0.3010
-0.3010 SHUTDOWN </s> -0.3010
-0.3010 SYSTEM </s> -0.3010
-0.3010 YOUTUBE </s> -0.3010
-0.3010 ZOMATO </s> -0.3010

\3-grams:
-0.3010 <s> ALL </s>
-0.3010 <s> AMAZON </s>
-0.3010 <s> CHROME </s>
-0.3010 <s> CLOSE </s>
-0.3010 <s> GOOGLE </s>
-0.3010 <s> MAP </s>
-0.3010 <s> OPEN </s>
-0.3010 <s> RESTART </s>
-0.3010 <s> SHUTDOWN </s>
-0.3010 <s> SYSTEM </s>
-0.3010 <s> YOUTUBE </s>
-0.3010 <s> ZOMATO </s>

\end\

